digraph Tree {
node [shape=box, style="filled, rounded", color="black", fontname=helvetica] ;
edge [fontname=helvetica] ;
0 [label="petal length (cm) <= 2.45\ngini = 0.66\nsamples = 98\nvalue = [45, 48, 57]\nclass = virginica", fillcolor="#f4eefd"] ;
1 [label="gini = 0.0\nsamples = 33\nvalue = [45, 0, 0]\nclass = setosa", fillcolor="#e58139"] ;
0 -> 1 [labeldistance=2.5, labelangle=45, headlabel="True"] ;
2 [label="sepal length (cm) <= 6.15\ngini = 0.5\nsamples = 65\nvalue = [0, 48, 57]\nclass = virginica", fillcolor="#ebe0fb"] ;
0 -> 2 [labeldistance=2.5, labelangle=-45, headlabel="False"] ;
3 [label="petal length (cm) <= 4.75\ngini = 0.41\nsamples = 29\nvalue = [0, 32, 13]\nclass = versicolor", fillcolor="#89f0b4"] ;
2 -> 3 ;
4 [label="sepal length (cm) <= 4.95\ngini = 0.11\nsamples = 22\nvalue = [0, 31, 2]\nclass = versicolor", fillcolor="#46e789"] ;
3 -> 4 ;
5 [label="gini = 0.0\nsamples = 1\nvalue = [0, 0, 2]\nclass = virginica", fillcolor="#8139e5"] ;
4 -> 5 ;
6 [label="gini = 0.0\nsamples = 21\nvalue = [0, 31, 0]\nclass = versicolor", fillcolor="#39e581"] ;
4 -> 6 ;
7 [label="sepal width (cm) <= 3.1\ngini = 0.15\nsamples = 7\nvalue = [0, 1, 11]\nclass = virginica", fillcolor="#8c4be7"] ;
3 -> 7 ;
8 [label="gini = 0.0\nsamples = 6\nvalue = [0, 0, 11]\nclass = virginica", fillcolor="#8139e5"] ;
7 -> 8 ;
9 [label="gini = 0.0\nsamples = 1\nvalue = [0, 1, 0]\nclass = versicolor", fillcolor="#39e581"] ;
7 -> 9 ;
10 [label="petal length (cm) <= 4.95\ngini = 0.39\nsamples = 36\nvalue = [0, 16, 44]\nclass = virginica", fillcolor="#af81ee"] ;
2 -> 10 ;
11 [label="petal width (cm) <= 1.65\ngini = 0.2\nsamples = 12\nvalue = [0, 16, 2]\nclass = versicolor", fillcolor="#52e891"] ;
10 -> 11 ;
12 [label="gini = 0.0\nsamples = 11\nvalue = [0, 16, 0]\nclass = versicolor", fillcolor="#39e581"] ;
11 -> 12 ;
13 [label="gini = 0.0\nsamples = 1\nvalue = [0, 0, 2]\nclass = virginica", fillcolor="#8139e5"] ;
11 -> 13 ;
14 [label="gini = 0.0\nsamples = 24\nvalue = [0, 0, 42]\nclass = virginica", fillcolor="#8139e5"] ;
10 -> 14 ;
}