digraph Tree {
node [shape=box, style="filled, rounded", color="black", fontname=helvetica] ;
edge [fontname=helvetica] ;
0 [label="petal width (cm) <= 0.8\ngini = 0.66\nsamples = 93\nvalue = [42, 62, 46]\nclass = versicolor", fillcolor="#e1fbec"] ;
1 [label="gini = 0.0\nsamples = 25\nvalue = [42, 0, 0]\nclass = setosa", fillcolor="#e58139"] ;
0 -> 1 [labeldistance=2.5, labelangle=45, headlabel="True"] ;
2 [label="petal length (cm) <= 4.95\ngini = 0.49\nsamples = 68\nvalue = [0, 62, 46]\nclass = versicolor", fillcolor="#ccf8de"] ;
0 -> 2 [labeldistance=2.5, labelangle=-45, headlabel="False"] ;
3 [label="petal width (cm) <= 1.65\ngini = 0.12\nsamples = 35\nvalue = [0, 60, 4]\nclass = versicolor", fillcolor="#46e789"] ;
2 -> 3 ;
4 [label="gini = 0.0\nsamples = 31\nvalue = [0, 59, 0]\nclass = versicolor", fillcolor="#39e581"] ;
3 -> 4 ;
5 [label="sepal length (cm) <= 5.95\ngini = 0.32\nsamples = 4\nvalue = [0, 1, 4]\nclass = virginica", fillcolor="#a06aec"] ;
3 -> 5 ;
6 [label="sepal width (cm) <= 2.85\ngini = 0.5\nsamples = 2\nvalue = [0, 1, 1]\nclass = versicolor", fillcolor="#ffffff"] ;
5 -> 6 ;
7 [label="gini = 0.0\nsamples = 1\nvalue = [0, 0, 1]\nclass = virginica", fillcolor="#8139e5"] ;
6 -> 7 ;
8 [label="gini = 0.0\nsamples = 1\nvalue = [0, 1, 0]\nclass = versicolor", fillcolor="#39e581"] ;
6 -> 8 ;
9 [label="gini = 0.0\nsamples = 2\nvalue = [0, 0, 3]\nclass = virginica", fillcolor="#8139e5"] ;
5 -> 9 ;
10 [label="petal width (cm) <= 1.7\ngini = 0.09\nsamples = 33\nvalue = [0, 2, 42]\nclass = virginica", fillcolor="#8742e6"] ;
2 -> 10 ;
11 [label="sepal length (cm) <= 6.05\ngini = 0.35\nsamples = 4\nvalue = [0, 2, 7]\nclass = virginica", fillcolor="#a572ec"] ;
10 -> 11 ;
12 [label="sepal width (cm) <= 2.45\ngini = 0.5\nsamples = 2\nvalue = [0, 2, 2]\nclass = versicolor", fillcolor="#ffffff"] ;
11 -> 12 ;
13 [label="gini = 0.0\nsamples = 1\nvalue = [0, 0, 2]\nclass = virginica", fillcolor="#8139e5"] ;
12 -> 13 ;
14 [label="gini = 0.0\nsamples = 1\nvalue = [0, 2, 0]\nclass = versicolor", fillcolor="#39e581"] ;
12 -> 14 ;
15 [label="gini = 0.0\nsamples = 2\nvalue = [0, 0, 5]\nclass = virginica", fillcolor="#8139e5"] ;
11 -> 15 ;
16 [label="gini = 0.0\nsamples = 29\nvalue = [0, 0, 35]\nclass = virginica", fillcolor="#8139e5"] ;
10 -> 16 ;
}